{
  "levels": [
    {
      "inputs": [0.7808717528398332, 0.9367397386400024, 0.995],
      "outputs": [0, 0, 0, 0],
      "biases": [
        -0.17684295275360296, -0.08342209479811252, 0.1928142228082593,
        -0.3188761311086542
      ],
      "weights": [
        [
          -0.26734347528787983, -0.08766171775835184, -0.04815139134151891,
          -0.06725819818190015
        ],
        [
          0.12690201599025305, 0.1829359067184449, 0.33347896509175734,
          -0.13262001294610054
        ],
        [
          -0.27442810113878885, -0.39705069253808306, -0.09755082775314716,
          -0.2335351610863246
        ]
      ]
    },
    {
      "inputs": [0, 0, 0, 0],
      "outputs": [1, 0, 0, 0],
      "biases": [
        -0.041049261301490184, 0.11733944585723807, 0.06268391901846689,
        0.06993057304272315
      ],
      "weights": [
        [
          0.10080196707545769, 0.1748090019089553, -0.060820137444241695,
          0.05595835503714962
        ],
        [
          -0.04049649191621364, 0.08968279909812031, -0.1540440230354358,
          -0.3360956089674647
        ],
        [
          0.16462643658231618, -0.18213699014715645, 0.017122620617665056,
          0.08590258455766132
        ],
        [
          -0.0757692450071445, -0.19115021024458825, 0.08880672142767125,
          -0.035177697512227164
        ]
      ]
    }
  ]
}
